{
  "bestModelName": "Logistic Regression",
  "vocabulary": [
    "13",
    "14",
    "15",
    "4k",
    "account",
    "address",
    "advantages",
    "air",
    "android",
    "asap",
    "assist",
    "authorized",
    "battery",
    "billed",
    "billing",
    "bud",
    "cancelled",
    "card",
    "change",
    "charge",
    "charged",
    "charging",
    "code",
    "compare",
    "constantly",
    "customer",
    "database",
    "days",
    "debug",
    "delete",
    "delivered",
    "delivery",
    "dell",
    "desktop",
    "does",
    "eco",
    "email",
    "err_auth_failed_401",
    "err_connection_timed_out",
    "err_db_timeout_504",
    "err_invalid_license_key",
    "err_resource_not_found_404",
    "err_ssl_handshake_failed",
    "error",
    "fast",
    "file",
    "galaxy",
    "havent",
    "hdr",
    "headphones",
    "help",
    "home",
    "id",
    "im",
    "invoice",
    "ipad",
    "iphone",
    "issue",
    "keeps",
    "key",
    "laptop",
    "life",
    "login",
    "longer",
    "m2",
    "macbook",
    "models",
    "monitor",
    "need",
    "needed",
    "new",
    "noisecancelling",
    "order",
    "package",
    "pad",
    "physical",
    "plan",
    "pro",
    "profile",
    "purchase",
    "quantum",
    "reasons",
    "received",
    "refund",
    "router",
    "s23",
    "samsung",
    "says",
    "secure",
    "security",
    "send",
    "service",
    "ship",
    "shipping",
    "shows",
    "smartwatch",
    "status",
    "subscription",
    "support",
    "supposed",
    "suspended",
    "sync",
    "tablet",
    "tracking",
    "tried",
    "trying",
    "twice",
    "ultra",
    "unlock",
    "update",
    "updated",
    "use",
    "v2",
    "version",
    "want",
    "warranty",
    "week",
    "windows",
    "wish",
    "xps"
  ],
  "idf": [
    4.302357428807586,
    4.352507212493057,
    4.026291476039033,
    3.9585364838106276,
    4.06197207105887,
    3.56795356560926,
    4.5900395012593656,
    4.420480196079263,
    4.244293627852824,
    3.5409422771186367,
    3.954690325223149,
    4.5973122605884456,
    4.630710540990294,
    4.5973122605884456,
    3.96627346631278,
    3.9394519351182167,
    4.579228585155151,
    3.960465124717033,
    3.62013931877983,
    3.9701645218057466,
    3.9394519351182167,
    3.53587897516209,
    4.0387397695656,
    4.5900395012593656,
    4.612018407978141,
    4.623191708576266,
    4.612018407978141,
    4.604638300680518,
    4.612018407978141,
    4.623191708576266,
    4.608321546096815,
    3.629801229691567,
    4.302357428807586,
    4.396309835151449,
    3.2887821828253876,
    3.8914722532300816,
    4.011961650484208,
    4.509996793585829,
    4.608321546096815,
    4.480340584002942,
    4.550958151216895,
    4.483592619389318,
    4.550958151216895,
    3.537142399208862,
    4.630710540990294,
    4.579228585155151,
    4.369798709603118,
    4.608321546096815,
    3.9585364838106276,
    3.9023419254669856,
    3.265389303250682,
    3.907821391231611,
    4.608321546096815,
    3.6132946650898643,
    3.9114911201205733,
    4.420480196079263,
    4.352507212493057,
    3.977992350425993,
    3.6160269072267375,
    4.5900395012593656,
    4.026291476039033,
    4.630710540990294,
    4.013996239181996,
    4.623191708576266,
    4.321562408643635,
    4.321562408643635,
    4.5900395012593656,
    3.9585364838106276,
    3.557577337623169,
    4.579228585155151,
    3.9300445280163214,
    3.9394519351182167,
    2.5002351725439835,
    3.977992350425993,
    3.8914722532300816,
    3.9721157419370083,
    3.9319189428106713,
    2.717123118114371,
    3.278968561377063,
    3.954690325223149,
    4.026291476039033,
    4.630710540990294,
    3.948948682655474,
    3.33417575508575,
    3.542212118559113,
    4.369798709603118,
    4.369798709603118,
    3.538407421515449,
    3.2986930667248417,
    4.630710540990294,
    4.608321546096815,
    4.623191708576266,
    4.604638300680518,
    3.681021528714291,
    3.9133310470425804,
    3.9337968776348715,
    4.608321546096815,
    4.5973122605884456,
    3.9858819377011563,
    4.604638300680518,
    4.630710540990294,
    4.612018407978141,
    4.244293627852824,
    3.9998402899518632,
    4.047125562941875,
    4.001850340879887,
    4.5973122605884456,
    3.9337968776348715,
    4.630710540990294,
    3.565349397470872,
    4.604638300680518,
    3.954690325223149,
    3.9337968776348715,
    4.5900395012593656,
    3.2996895790145806,
    4.653612305276978,
    4.579228585155151,
    3.8950823654541815,
    4.623191708576266,
    4.302357428807586
  ],
  "lrClassifiers": [
    {
      "category": "Account",
      "weights": [
        -0.24449757741684747,
        -0.021258123659745474,
        -0.9539513605259012,
        -1.0005985010111178,
        3.9561264876073867,
        -0.1169622742574789,
        -0.5110863305497324,
        -0.36557609520728973,
        -0.3250784715814228,
        -0.032038572710852885,
        0.1866847864421606,
        -0.35696315780088617,
        -0.15533794871503354,
        -0.35696315780088617,
        -0.974597706517292,
        -1.1545743836235685,
        -0.25759971266908777,
        -0.4058958838246127,
        4.066638146346179,
        -0.49182010448734037,
        -1.203849711894805,
        -1.009643996526793,
        -1.1554730503819923,
        -0.5110863305497324,
        -0.3101787010549416,
        1.2960916622857006,
        -0.3101787010549416,
        -0.20568547243358273,
        -0.3101787010549416,
        1.2960916622857006,
        -0.15578728964407937,
        -1.7547163208005885,
        -0.24449757741684747,
        -0.2833741115012974,
        -0.840954881114997,
        -0.9806409392616356,
        4.811453720174199,
        -0.7724146847204664,
        -0.6610994454338481,
        -0.7472670923486926,
        -0.7329961431286609,
        -0.8024087639234709,
        -0.704876404284202,
        0.40971495224809573,
        -0.15533794871503354,
        -0.25759971266908777,
        -0.1831848343338086,
        -0.15578728964407937,
        -1.0005985010111178,
        -0.97108147667162,
        1.4851993703670234,
        -0.9125872321545432,
        -0.2267580518608186,
        -0.9712016235831137,
        -0.4961815176825018,
        -0.36557609520728973,
        -0.021258123659745474,
        -0.4514520334446522,
        1.4037606171058103,
        -0.5110863305497324,
        -0.9539513605259012,
        -0.15533794871503354,
        1.055240124775662,
        1.2960916622857006,
        0.044538791831358136,
        0.044538791831358136,
        -0.5110863305497324,
        -1.0005985010111178,
        1.009744005142193,
        -0.25759971266908777,
        0.282641025759816,
        -1.1545743836235685,
        -1.8261593894915629,
        -0.671941122911566,
        -0.9806409392616356,
        -1.1210658138300873,
        -0.5645936856658625,
        -1.8367593542269076,
        5.753749294526131,
        -1.1806347512949023,
        -0.9539513605259012,
        1.9341310518367654,
        -0.6437826015329351,
        -0.7682414755601696,
        -2.3827374002825796,
        -0.1831848343338086,
        -0.1831848343338086,
        -0.48944368152668194,
        1.8162840465027916,
        1.9341310518367654,
        -0.2267580518608186,
        1.2960916622857006,
        -0.20568547243358273,
        -0.6736350380880791,
        -0.5670435913149153,
        -1.0126404497807249,
        -0.15578728964407937,
        -0.35696315780088617,
        -0.3977195008026948,
        -0.20568547243358273,
        1.9341310518367654,
        -0.3101787010549416,
        -0.3250784715814228,
        -0.378657215574842,
        2.205616867483668,
        -1.1228658956415947,
        -0.35696315780088617,
        -1.0126404497807249,
        1.9341310518367654,
        -1.287148935582059,
        -0.20568547243358273,
        0.7632836938383651,
        -1.0126404497807249,
        -0.5110863305497324,
        3.859727437641739,
        -0.4764367390087371,
        -0.25759971266908777,
        -0.5912568093868533,
        1.2960916622857006,
        -0.24449757741684747
      ],
      "bias": 0.026024849258685853
    },
    {
      "category": "Billing",
      "weights": [
        -0.7000398548492347,
        -0.7092695733165464,
        -0.396958106347858,
        -0.4688174541244569,
        1.2727147554216698,
        1.216787081485463,
        -0.2548340944109752,
        -0.7715039874728511,
        -0.8298701648727235,
        0.7403667344852313,
        -0.21525609762027081,
        1.504289867951041,
        -0.15249704103829578,
        1.504289867951041,
        5.97032995252518,
        -0.4992099592763498,
        1.2067094918223984,
        2.0335765130739123,
        -1.9435481311091827,
        2.2914271532838137,
        2.8053891175534944,
        -0.44591620152680267,
        2.6881202491719187,
        -0.2548340944109752,
        -0.25852676504824335,
        -0.26343147684339374,
        -0.25852676504824335,
        -0.3037581330873754,
        -0.25852676504824335,
        -0.26343147684339374,
        -0.32149013338651194,
        -1.291566940417089,
        -0.7000398548492347,
        -0.7928926586125672,
        -0.864097171067859,
        -0.36260803575361034,
        -0.9172383947089936,
        0.050851721525171,
        0.004587684373733449,
        0.005760222462954226,
        0.07747371372394223,
        0.04624228570087889,
        -0.24082688201178767,
        -1.2430084594771653,
        -0.15249704103829578,
        1.2067094918223984,
        -0.6856518122723861,
        -0.32149013338651194,
        -0.4688174541244569,
        -0.42820080476697403,
        -0.30133797046435284,
        1.8439432115347438,
        2.2399312498384956,
        1.2386317694719045,
        3.1811101052566215,
        -0.7715039874728511,
        -0.7092695733165464,
        0.7713168998452328,
        1.75630522006446,
        -0.2548340944109752,
        -0.396958106347858,
        -0.15249704103829578,
        -0.7735624211237074,
        -0.26343147684339374,
        -0.74004400494127,
        -0.74004400494127,
        -0.2548340944109752,
        -0.4688174541244569,
        1.1798657856971573,
        1.2067094918223984,
        1.7631246826389646,
        -0.4992099592763498,
        2.9541488123171864,
        -0.9083573313913699,
        -0.36260803575361034,
        -0.6402341820388602,
        0.7762075313368718,
        -0.9091023400106503,
        -0.8355238488517212,
        3.6963341819634263,
        -0.396958106347858,
        -0.24909378683680328,
        -2.0054995800744675,
        3.93878462247078,
        -0.6684872730619346,
        -0.6856518122723861,
        -0.6856518122723861,
        -0.9384759033119512,
        -1.0687917754880707,
        -0.24909378683680328,
        2.2399312498384956,
        -0.26343147684339374,
        -0.3037581330873754,
        -1.4450237497128415,
        1.061122046707972,
        -0.4198831165816824,
        -0.32149013338651194,
        1.504289867951041,
        -0.3608651155097095,
        -0.3037581330873754,
        -0.24909378683680328,
        -0.25852676504824335,
        -0.8298701648727235,
        -0.6523129687623657,
        -1.4129054279024849,
        2.889666167538773,
        1.504289867951041,
        -0.4198831165816824,
        -0.24909378683680328,
        0.08562969344970535,
        -0.3037581330873754,
        -0.48676947718849356,
        -0.4198831165816824,
        -0.2548340944109752,
        -1.1492644124518394,
        -0.5261395367952145,
        1.2067094918223984,
        -0.9599832570691716,
        -0.26343147684339374,
        -0.7000398548492347
      ],
      "bias": -0.2822547055545474
    },
    {
      "category": "Product",
      "weights": [
        0.23112817258408141,
        -0.5005794877690506,
        1.4354897158135285,
        1.5035864652323185,
        -2.1207514795336944,
        -1.7367365919528845,
        1.4628929234374222,
        0.2566676460704561,
        0.24210023389055596,
        -0.4196164839347553,
        -0.07349108791968924,
        -0.3498820048988983,
        1.0545568834348735,
        -0.3498820048988983,
        -0.4050011175174136,
        1.9832931641105642,
        -0.4575607056222623,
        -0.5795086112520877,
        -1.931300160249434,
        -0.48637783324610584,
        -0.5640816604899436,
        2.0303241892311132,
        -2.576271329356411,
        1.4628929234374222,
        -0.24199890858577924,
        -0.5476517024712251,
        -0.24199890858577924,
        -0.1480096394533129,
        -0.24199890858577924,
        -0.5476517024712251,
        -0.17054390814311657,
        -1.748223223340353,
        0.23112817258408141,
        -0.680778870264562,
        1.7568071020216776,
        1.3482987878927617,
        -0.8472154082609681,
        -1.2131662346695262,
        -1.2411714048334297,
        -1.1562009366398482,
        -1.1940523640700855,
        -1.2504505931684127,
        -1.1767078167920095,
        -0.867726510007294,
        1.0545568834348735,
        -0.4575607056222623,
        0.1546218355385158,
        -0.17054390814311657,
        1.5035864652323185,
        1.5950480387557855,
        -0.9932455754254085,
        -0.27459775130606634,
        -0.9433819339524938,
        -2.820926498381278,
        -1.0984189544836047,
        0.2566676460704561,
        -0.5005794877690506,
        -0.3933193173914402,
        -1.0788587812778103,
        1.4628929234374222,
        1.4354897158135285,
        1.0545568834348735,
        -0.781534814452715,
        -0.5476517024712251,
        -0.5016568093870195,
        -0.5016568093870195,
        1.4628929234374222,
        1.5035864652323185,
        -2.7471534059633,
        -0.4575607056222623,
        -0.4767959355698749,
        1.9832931641105642,
        -1.673562303612606,
        -3.7687207309461126,
        1.3482987878927617,
        3.8926817871025974,
        2.1777691032131874,
        3.3070843537391137,
        -1.0036882958051483,
        -0.9806826646275952,
        1.4354897158135285,
        -0.25188575927826357,
        -0.6859185121956927,
        -0.9148854070127947,
        1.6663914108369704,
        0.1546218355385158,
        0.1546218355385158,
        -0.8524660472903102,
        -0.02768916121812033,
        -0.25188575927826357,
        -0.9433819339524938,
        -0.5476517024712251,
        -0.1480096394533129,
        -2.8385371756378293,
        -0.5031649136300007,
        1.4971594243252837,
        -0.17054390814311657,
        -0.3498820048988983,
        3.68773292640032,
        -0.1480096394533129,
        -0.25188575927826357,
        -0.24199890858577924,
        0.24210023389055596,
        -0.2928301969678384,
        -2.4858516412361458,
        -0.8295948715424257,
        -0.3498820048988983,
        1.4971594243252837,
        -0.25188575927826357,
        -2.411494717574288,
        -0.1480096394533129,
        2.117075040101417,
        1.4971594243252837,
        1.4628929234374222,
        0.7177920524912276,
        2.8982847248632253,
        -0.4575607056222623,
        1.943404021630232,
        -0.5476517024712251,
        0.23112817258408141
      ],
      "bias": 0.1682773438498086
    },
    {
      "category": "Shipping",
      "weights": [
        -0.5687276351352505,
        -0.600470509021559,
        0.31413860879684957,
        0.3180960152506993,
        -0.7866205764703703,
        1.846794265928073,
        -0.34769278404042675,
        -0.5929034793296053,
        -0.6378670535224309,
        0.04835542422362443,
        0.23832891215085864,
        -0.274868784172726,
        -0.3053904264612502,
        -0.274868784172726,
        -0.7487169630134941,
        0.31349163572295374,
        -0.2134322765291944,
        -0.5127854295892568,
        1.6382988786447792,
        -0.5663689651533161,
        -0.586892423790186,
        0.1056178351477805,
        -1.0855063801541243,
        -0.34769278404042675,
        -0.1433632246099657,
        -0.25190512637775864,
        -0.1433632246099657,
        0.8856920576228313,
        -0.1433632246099657,
        -0.25190512637775864,
        0.9756249360711963,
        5.622443527501074,
        -0.5687276351352505,
        -0.5143662265733673,
        2.1190293008241845,
        0.3728779690137793,
        -2.0265713912402936,
        -0.5191464641472576,
        -0.5277514816405642,
        -0.4994617307028969,
        -0.504862151267134,
        -0.531775328852794,
        -0.5059623927200662,
        -0.5476886866410927,
        -0.3053904264612502,
        -0.2134322765291944,
        -0.5358936038385127,
        0.9756249360711963,
        0.3180960152506993,
        0.3309078713454467,
        -1.4282847050438428,
        0.2831684350418229,
        -0.6399799801975862,
        -1.1601473831479692,
        -0.7770719686431936,
        -0.5929034793296053,
        -0.600470509021559,
        -0.4533001117136034,
        -1.2337169800152021,
        -0.34769278404042675,
        0.31413860879684957,
        -0.3053904264612502,
        -0.5550430771484691,
        -0.25190512637775864,
        -0.6435188729742188,
        -0.6435188729742188,
        -0.34769278404042675,
        0.3180960152506993,
        1.6976808497029348,
        -0.2134322765291944,
        -0.7360915350210442,
        0.31349163572295374,
        2.330783106613816,
        6.799103976245077,
        0.3728779690137793,
        -1.1048806684909172,
        -0.5194564224306731,
        0.15656662022105938,
        -0.7031696480309966,
        -0.9540463440540087,
        0.31413860879684957,
        -0.28241680321295487,
        4.25530894980537,
        -1.2996230357394942,
        0.14325913454184894,
        -0.5358936038385127,
        -0.5358936038385127,
        0.22421799145242466,
        -0.16771225091259703,
        -0.28241680321295487,
        -0.6399799801975862,
        -0.25190512637775864,
        0.8856920576228313,
        5.681931783629992,
        -0.35561895445891173,
        0.3527058615028781,
        0.9756249360711963,
        -0.274868784172726,
        -1.0346239047521637,
        0.8856920576228313,
        -0.28241680321295487,
        -0.1433632246099657,
        -0.6378670535224309,
        1.7562067436052007,
        -1.0934213229219307,
        -0.44936891404670254,
        -0.274868784172726,
        0.3527058615028781,
        -0.28241680321295487,
        -1.3646142688820566,
        0.8856920576228313,
        -0.5536218100656783,
        0.3527058615028781,
        -0.34769278404042675,
        -1.0565230777041403,
        -1.1679646488629243,
        -0.2134322765291944,
        -0.7887676331062202,
        -0.25190512637775864,
        -0.5687276351352505
      ],
      "bias": -0.38307668005836404
    },
    {
      "category": "Technical",
      "weights": [
        1.2821368948172498,
        1.8315776937669037,
        -0.39871885773661747,
        -0.35226652534744357,
        -2.321469187025004,
        -1.2098824812031668,
        -0.3492797144362864,
        1.4733159159392908,
        1.5507154560860206,
        -0.3370671020632487,
        -0.1362665130530596,
        -0.5225759210785365,
        -0.44133146722029376,
        -0.5225759210785365,
        -3.842014165476981,
        -0.6430004569335986,
        -0.2781167970018549,
        -0.5353865884079508,
        -1.8300887336323335,
        -0.7468602503970538,
        -0.45056532137856736,
        -0.6803818263252958,
        2.1291305107206075,
        -0.3492797144362864,
        0.9540675992989304,
        -0.23310335659332354,
        0.9540675992989304,
        -0.22823881264856039,
        0.9540675992989304,
        -0.23310335659332354,
        -0.3278036048974892,
        -0.8279370429430463,
        1.2821368948172498,
        2.271411866951792,
        -2.170784350663011,
        -0.37792778189129567,
        -1.0204285259639505,
        2.4538756620120776,
        2.4254346475341113,
        2.3971695372284842,
        2.354436944741935,
        2.5383924002437968,
        2.628373495808066,
        2.2487087038774565,
        -0.44133146722029376,
        -0.2781167970018549,
        1.2501084149061918,
        -0.3278036048974892,
        -0.35226652534744357,
        -0.52667362866264,
        1.2376688805665805,
        -0.9399266631159563,
        -0.4298112838275973,
        3.713643735640454,
        -0.8094376644473236,
        1.4733159159392908,
        1.8315776937669037,
        0.5267545627044634,
        -0.847490075877259,
        -0.3492797144362864,
        -0.39871885773661747,
        -0.44133146722029376,
        1.0549001879492395,
        -0.23310335659332354,
        1.84068089547115,
        1.84068089547115,
        -0.3492797144362864,
        -0.35226652534744357,
        -1.1401372345789844,
        -0.2781167970018549,
        -0.8328782378078581,
        -0.6430004569335986,
        -1.7852102258268345,
        -1.4500847909960275,
        -0.37792778189129567,
        -1.0265011227427279,
        -1.8699265264535192,
        -0.7177892797226135,
        -3.2113675018382604,
        -0.5809704219869232,
        -0.39871885773661747,
        -1.1507347025087424,
        -0.9201082560022751,
        -0.9560347041583258,
        1.2415741279656927,
        1.2501084149061918,
        1.2501084149061918,
        2.056167640676521,
        -0.5520908588840012,
        -1.1507347025087424,
        -0.4298112838275973,
        -0.23310335659332354,
        -0.22823881264856039,
        -0.7247358201912417,
        0.36470541269585066,
        -0.4173417194657543,
        -0.3278036048974892,
        -0.5225759210785365,
        -1.894524405335754,
        -0.22823881264856039,
        -1.1507347025087424,
        0.9540675992989304,
        1.5507154560860206,
        -0.43240636230015644,
        2.7865615245768987,
        -0.48783648630805154,
        -0.5225759210785365,
        -0.4173417194657543,
        -1.1507347025087424,
        4.977628228588704,
        -0.22823881264856039,
        -1.8399674466856097,
        -0.4173417194657543,
        -0.3492797144362864,
        -2.3717319999769844,
        -0.7277438001963481,
        -0.2781167970018549,
        0.39660367793201234,
        -0.23310335659332354,
        1.2821368948172498
      ],
      "bias": 0.4710291925046043
    }
  ],
  "categories": [
    "Account",
    "Billing",
    "Product",
    "Shipping",
    "Technical"
  ]
}